<?xml version="1.0"?>
<opencv_storage>
<cascade>
  <stageType>BOOST</stageType>
  <featureType>HAAR</featureType>
  <height>20</height>
  <width>20</width>
  <stageParams>
    <boostType>GAB</boostType>
    <minHitRate>9.9500000476837158e-01</minHitRate>
    <maxFalseAlarm>5.0000000000000000e-01</maxFalseAlarm>
    <weightTrimRate>9.4999999999999996e-01</weightTrimRate>
    <maxDepth>1</maxDepth>
    <maxWeakCount>100</maxWeakCount></stageParams>
  <featureParams>
    <maxCatCount>0</maxCatCount>
    <featSize>1</featSize>
    <mode>BASIC</mode></featureParams>
  <stageNum>9</stageNum>
  <stages>
    <!-- stage 0 -->
    <_>
      <maxWeakCount>2</maxWeakCount>
      <stageThreshold>-3.0315655469894409e-01</stageThreshold>
      <weakClassifiers>
        <_>
          <internalNodes>
            0 -1 20 2.3886528797447681e-03</internalNodes>
          <leafValues>
            -9.2443323135375977e-01 8.5729277133941650e-01</leafValues></_>
        <_>
          <internalNodes>
            0 -1 27 2.8050541877746582e-03</internalNodes>
          <leafValues>
            -9.0401792526245117e-01 6.2127667665481567e-01</leafValues></_></weakClassifiers></_>
    <!-- stage 1 -->
    <_>
      <maxWeakCount>6</maxWeakCount>
      <stageThreshold>-1.0137802362442017e+00</stageThreshold>
      <weakClassifiers>
        <_>
          <internalNodes>
            0 -1 37 1.4461951795965433e-03</internalNodes>
          <leafValues>
            -8.0277347564697266e-01 6.9283276796340942e-01</leafValues></_>
        <_>
          <internalNodes>
            0 -1 51 -6.0548475012183189e-03</internalNodes>
          <leafValues>
            6.5263146162033081e-01 -6.0132938623428345e-01</leafValues></_>
        <_>
          <internalNodes>
            0 -1 14 -2.3192763328552246e-03</internalNodes>
          <leafValues>
            3.5306772589683533e-01 -9.0754199028015137e-01</leafValues></_>
        <_>
          <internalNodes>
            0 -1 41 1.4230890665203333e-03</internalNodes>
          <leafValues>
            -4.8030692338943481e-01 5.5046516656875610e-01</leafValues></_>
        <_>
          <internalNodes>
            0 -1 9 -1.3506927061825991e-03</internalNodes>
          <leafValues>
            -9.0279805660247803e-01 2.6467829942703247e-01</leafValues></_>
        <_>
          <internalNodes>
            0 -1 39 -8.3255430217832327e-04</internalNodes>
          <leafValues>
            2.5288349390029907e-01 -8.2154470682144165e-01</leafValues></_></weakClassifiers></_>
    <!-- stage 2 -->
    <_>
      <maxWeakCount>5</maxWeakCount>
      <stageThreshold>-5.1378285884857178e-01</stageThreshold>
      <weakClassifiers>
        <_>
          <internalNodes>
            0 -1 45 -1.2571854516863823e-02</internalNodes>
          <leafValues>
            6.6997027397155762e-01 -6.6275662183761597e-01</leafValues></_>
        <_>
          <internalNodes>
            0 -1 36 -2.2037229500710964e-03</internalNodes>
          <leafValues>
            5.5968493223190308e-01 -5.3018307685852051e-01</leafValues></_>
        <_>
          <internalNodes>
            0 -1 12 7.6287932461127639e-04</internalNodes>
          <leafValues>
            -9.0285724401473999e-01 2.8303611278533936e-01</leafValues></_>
        <_>
          <internalNodes>
            0 -1 21 8.1714475527405739e-04</internalNodes>
          <leafValues>
            -8.6554098129272461e-01 2.7100169658660889e-01</leafValues></_>
        <_>
          <internalNodes>
            0 -1 6 1.0315604507923126e-02</internalNodes>
          <leafValues>
            2.2114430367946625e-01 -9.4829040765762329e-01</leafValues></_></weakClassifiers></_>
    <!-- stage 3 -->
    <_>
      <maxWeakCount>5</maxWeakCount>
      <stageThreshold>-4.5591923594474792e-01</stageThreshold>
      <weakClassifiers>
        <_>
          <internalNodes>
            0 -1 40 3.4798355773091316e-03</internalNodes>
          <leafValues>
            -6.3478261232376099e-01 5.9529411792755127e-01</leafValues></_>
        <_>
          <internalNodes>
            0 -1 15 4.2768119601532817e-04</internalNodes>
          <leafValues>
            3.1105443835258484e-01 -9.4071322679519653e-01</leafValues></_>
        <_>
          <internalNodes>
            0 -1 43 -2.2154678590595722e-03</internalNodes>
          <leafValues>
            5.6194782257080078e-01 -4.1629901528358459e-01</leafValues></_>
        <_>
          <internalNodes>
            0 -1 22 -9.6342125907540321e-03</internalNodes>
          <leafValues>
            -9.1439229249954224e-01 2.2267381846904755e-01</leafValues></_>
        <_>
          <internalNodes>
            0 -1 29 -1.6137158963829279e-03</internalNodes>
          <leafValues>
            2.4194428324699402e-01 -8.9127665758132935e-01</leafValues></_></weakClassifiers></_>
    <!-- stage 4 -->
    <_>
      <maxWeakCount>6</maxWeakCount>
      <stageThreshold>-5.2796655893325806e-01</stageThreshold>
      <weakClassifiers>
        <_>
          <internalNodes>
            0 -1 31 -3.1644515693187714e-03</internalNodes>
          <leafValues>
            5.4186552762985229e-01 -8.8354432582855225e-01</leafValues></_>
        <_>
          <internalNodes>
            0 -1 38 -1.0165311396121979e-03</internalNodes>
          <leafValues>
            4.0001812577247620e-01 -5.7671213150024414e-01</leafValues></_>
        <_>
          <internalNodes>
            0 -1 42 -1.4304629294201732e-03</internalNodes>
          <leafValues>
            4.1705140471458435e-01 -5.6008422374725342e-01</leafValues></_>
        <_>
          <internalNodes>
            0 -1 21 -2.6153848739340901e-04</internalNodes>
          <leafValues>
            -9.9373340606689453e-01 1.8579812347888947e-01</leafValues></_>
        <_>
          <internalNodes>
            0 -1 26 5.1048432942479849e-04</internalNodes>
          <leafValues>
            -9.3090313673019409e-01 1.9480937719345093e-01</leafValues></_>
        <_>
          <internalNodes>
            0 -1 32 2.6057851500809193e-03</internalNodes>
          <leafValues>
            1.3503636419773102e-01 -9.0932291746139526e-01</leafValues></_></weakClassifiers></_>
    <!-- stage 5 -->
    <_>
      <maxWeakCount>7</maxWeakCount>
      <stageThreshold>-6.0339057445526123e-01</stageThreshold>
      <weakClassifiers>
        <_>
          <internalNodes>
            0 -1 2 -4.3248068541288376e-03</internalNodes>
          <leafValues>
            -8.3251231908798218e-01 5.3966867923736572e-01</leafValues></_>
        <_>
          <internalNodes>
            0 -1 46 1.8320413073524833e-03</internalNodes>
          <leafValues>
            -7.5539743900299072e-01 2.9104334115982056e-01</leafValues></_>
        <_>
          <internalNodes>
            0 -1 17 6.9779966725036502e-04</internalNodes>
          <leafValues>
            -7.3270022869110107e-01 2.8891497850418091e-01</leafValues></_>
        <_>
          <internalNodes>
            0 -1 3 -1.4249774627387524e-02</internalNodes>
          <leafValues>
            -8.0402338504791260e-01 2.1807719767093658e-01</leafValues></_>
        <_>
          <internalNodes>
            0 -1 22 -8.2153016701340675e-03</internalNodes>
          <leafValues>
            -8.2334780693054199e-01 1.3433161377906799e-01</leafValues></_>
        <_>
          <internalNodes>
            0 -1 29 -1.6460362821817398e-03</internalNodes>
          <leafValues>
            2.3052960634231567e-01 -8.9085632562637329e-01</leafValues></_>
        <_>
          <internalNodes>
            0 -1 28 -7.2052655741572380e-04</internalNodes>
          <leafValues>
            1.1266582459211349e-01 -9.1455149650573730e-01</leafValues></_></weakClassifiers></_>
    <!-- stage 6 -->
    <_>
      <maxWeakCount>7</maxWeakCount>
      <stageThreshold>-8.4241187572479248e-01</stageThreshold>
      <weakClassifiers>
        <_>
          <internalNodes>
            0 -1 18 -4.7267191112041473e-03</internalNodes>
          <leafValues>
            -8.3606559038162231e-01 5.1670950651168823e-01</leafValues></_>
        <_>
          <internalNodes>
            0 -1 34 2.3644696921110153e-03</internalNodes>
          <leafValues>
            -4.8235017061233521e-01 4.1268330812454224e-01</leafValues></_>
        <_>
          <internalNodes>
            0 -1 50 -1.2643416994251311e-04</internalNodes>
          <leafValues>
            2.8908011317253113e-01 -7.4521040916442871e-01</leafValues></_>
        <_>
          <internalNodes>
            0 -1 24 5.9140511439181864e-05</internalNodes>
          <leafValues>
            -7.8910475969314575e-01 1.9196966290473938e-01</leafValues></_>
        <_>
          <internalNodes>
            0 -1 53 -1.2349938973784447e-02</internalNodes>
          <leafValues>
            2.9955899715423584e-01 -6.1464452743530273e-01</leafValues></_>
        <_>
          <internalNodes>
            0 -1 10 5.8151464909315109e-03</internalNodes>
          <leafValues>
            1.3436217606067657e-01 -9.7500348091125488e-01</leafValues></_>
        <_>
          <internalNodes>
            0 -1 7 -9.5346467569470406e-03</internalNodes>
          <leafValues>
            -9.2752200365066528e-01 1.5675184130668640e-01</leafValues></_></weakClassifiers></_>
    <!-- stage 7 -->
    <_>
      <maxWeakCount>9</maxWeakCount>
      <stageThreshold>-9.4167828559875488e-01</stageThreshold>
      <weakClassifiers>
        <_>
          <internalNodes>
            0 -1 16 -8.6368806660175323e-04</internalNodes>
          <leafValues>
            5.9058344364166260e-01 -3.4048256278038025e-01</leafValues></_>
        <_>
          <internalNodes>
            0 -1 0 5.5459570139646530e-03</internalNodes>
          <leafValues>
            -2.6464423537254333e-01 5.7863235473632812e-01</leafValues></_>
        <_>
          <internalNodes>
            0 -1 49 8.3117990288883448e-04</internalNodes>
          <leafValues>
            2.1478742361068726e-01 -8.3053708076477051e-01</leafValues></_>
        <_>
          <internalNodes>
            0 -1 47 9.8854664247483015e-04</internalNodes>
          <leafValues>
            -5.7879948616027832e-01 2.6628085970878601e-01</leafValues></_>
        <_>
          <internalNodes>
            0 -1 44 2.2640783339738846e-02</internalNodes>
          <leafValues>
            1.2712663412094116e-01 -8.8171875476837158e-01</leafValues></_>
        <_>
          <internalNodes>
            0 -1 25 4.5336242765188217e-03</internalNodes>
          <leafValues>
            1.3031980395317078e-01 -8.2200032472610474e-01</leafValues></_>
        <_>
          <internalNodes>
            0 -1 35 -2.5553852319717407e-03</internalNodes>
          <leafValues>
            3.2535308599472046e-01 -4.0395525097846985e-01</leafValues></_>
        <_>
          <internalNodes>
            0 -1 1 1.8144014757126570e-03</internalNodes>
          <leafValues>
            -8.8229006528854370e-01 1.1166543513536453e-01</leafValues></_>
        <_>
          <internalNodes>
            0 -1 8 5.2397954277694225e-03</internalNodes>
          <leafValues>
            1.2519343197345734e-01 -8.2046484947204590e-01</leafValues></_></weakClassifiers></_>
    <!-- stage 8 -->
    <_>
      <maxWeakCount>11</maxWeakCount>
      <stageThreshold>-7.8367704153060913e-01</stageThreshold>
      <weakClassifiers>
        <_>
          <internalNodes>
            0 -1 23 1.0437975637614727e-02</internalNodes>
          <leafValues>
            -5.3076922893524170e-01 5.3944951295852661e-01</leafValues></_>
        <_>
          <internalNodes>
            0 -1 33 4.0104379877448082e-04</internalNodes>
          <leafValues>
            -4.8681214451789856e-01 3.7580865621566772e-01</leafValues></_>
        <_>
          <internalNodes>
            0 -1 4 1.1620202567428350e-03</internalNodes>
          <leafValues>
            3.0239325761795044e-01 -5.5121016502380371e-01</leafValues></_>
        <_>
          <internalNodes>
            0 -1 48 -7.9850736074149609e-04</internalNodes>
          <leafValues>
            2.0127271115779877e-01 -6.2096810340881348e-01</leafValues></_>
        <_>
          <internalNodes>
            0 -1 19 5.7646529749035835e-03</internalNodes>
          <leafValues>
            1.3170972466468811e-01 -9.0965247154235840e-01</leafValues></_>
        <_>
          <internalNodes>
            0 -1 37 2.0018327049911022e-03</internalNodes>
          <leafValues>
            -6.9133144617080688e-01 1.9815219938755035e-01</leafValues></_>
        <_>
          <internalNodes>
            0 -1 11 5.0484738312661648e-03</internalNodes>
          <leafValues>
            1.5112912654876709e-01 -8.1911140680313110e-01</leafValues></_>
        <_>
          <internalNodes>
            0 -1 5 5.0150854513049126e-03</internalNodes>
          <leafValues>
            -2.8891089558601379e-01 5.0200533866882324e-01</leafValues></_>
        <_>
          <internalNodes>
            0 -1 52 -1.6551000298932195e-03</internalNodes>
          <leafValues>
            -6.7336493730545044e-01 1.8465228378772736e-01</leafValues></_>
        <_>
          <internalNodes>
            0 -1 30 -1.2772621586918831e-02</internalNodes>
          <leafValues>
            -7.5395756959915161e-01 1.6280013322830200e-01</leafValues></_>
        <_>
          <internalNodes>
            0 -1 13 -1.3786847703158855e-03</internalNodes>
          <leafValues>
            -8.5954564809799194e-01 1.1141019314527512e-01</leafValues></_></weakClassifiers></_></stages>
  <features>
    <_>
      <rects>
        <_>
          0 7 2 7 -1.</_>
        <_>
          1 7 1 7 2.</_></rects>
      <tilted>0</tilted></_>
    <_>
      <rects>
        <_>
          1 10 10 1 -1.</_>
        <_>
          6 10 5 1 2.</_></rects>
      <tilted>0</tilted></_>
    <_>
      <rects>
        <_>
          2 9 14 4 -1.</_>
        <_>
          9 9 7 4 2.</_></rects>
      <tilted>0</tilted></_>
    <_>
      <rects>
        <_>
          2 10 9 3 -1.</_>
        <_>
          5 10 3 3 3.</_></rects>
      <tilted>0</tilted></_>
    <_>
      <rects>
        <_>
          6 10 2 4 -1.</_>
        <_>
          7 10 1 4 2.</_></rects>
      <tilted>0</tilted></_>
    <_>
      <rects>
        <_>
          6 10 3 3 -1.</_>
        <_>
          6 11 3 1 3.</_></rects>
      <tilted>0</tilted></_>
    <_>
      <rects>
        <_>
          6 11 9 2 -1.</_>
        <_>
          9 11 3 2 3.</_></rects>
      <tilted>0</tilted></_>
    <_>
      <rects>
        <_>
          7 9 6 4 -1.</_>
        <_>
          10 9 3 4 2.</_></rects>
      <tilted>0</tilted></_>
    <_>
      <rects>
        <_>
          7 10 6 3 -1.</_>
        <_>
          7 11 6 1 3.</_></rects>
      <tilted>0</tilted></_>
    <_>
      <rects>
        <_>
          8 9 3 3 -1.</_>
        <_>
          9 9 1 3 3.</_></rects>
      <tilted>0</tilted></_>
    <_>
      <rects>
        <_>
          8 9 6 3 -1.</_>
        <_>
          11 9 3 3 2.</_></rects>
      <tilted>0</tilted></_>
    <_>
      <rects>
        <_>
          8 9 6 4 -1.</_>
        <_>
          11 9 3 4 2.</_></rects>
      <tilted>0</tilted></_>
    <_>
      <rects>
        <_>
          8 9 5 2 -1.</_>
        <_>
          8 10 5 1 2.</_></rects>
      <tilted>0</tilted></_>
    <_>
      <rects>
        <_>
          8 10 4 1 -1.</_>
        <_>
          10 10 2 1 2.</_></rects>
      <tilted>0</tilted></_>
    <_>
      <rects>
        <_>
          8 10 3 4 -1.</_>
        <_>
          8 12 3 2 2.</_></rects>
      <tilted>0</tilted></_>
    <_>
      <rects>
        <_>
          8 10 8 1 -1.</_>
        <_>
          12 10 4 1 2.</_></rects>
      <tilted>0</tilted></_>
    <_>
      <rects>
        <_>
          8 11 6 1 -1.</_>
        <_>
          10 11 2 1 3.</_></rects>
      <tilted>0</tilted></_>
    <_>
      <rects>
        <_>
          9 8 1 3 -1.</_>
        <_>
          9 9 1 1 3.</_></rects>
      <tilted>0</tilted></_>
    <_>
      <rects>
        <_>
          9 8 1 6 -1.</_>
        <_>
          9 11 1 3 2.</_></rects>
      <tilted>0</tilted></_>
    <_>
      <rects>
        <_>
          9 8 3 3 -1.</_>
        <_>
          10 8 1 3 3.</_></rects>
      <tilted>0</tilted></_>
    <_>
      <rects>
        <_>
          9 8 2 2 -1.</_>
        <_>
          9 9 2 1 2.</_></rects>
      <tilted>0</tilted></_>
    <_>
      <rects>
        <_>
          9 8 2 3 -1.</_>
        <_>
          9 9 2 1 3.</_></rects>
      <tilted>0</tilted></_>
    <_>
      <rects>
        <_>
          9 8 3 6 -1.</_>
        <_>
          9 11 3 3 2.</_></rects>
      <tilted>0</tilted></_>
    <_>
      <rects>
        <_>
          9 8 9 6 -1.</_>
        <_>
          12 8 3 6 3.</_></rects>
      <tilted>0</tilted></_>
    <_>
      <rects>
        <_>
          9 9 3 2 -1.</_>
        <_>
          10 9 1 2 3.</_></rects>
      <tilted>0</tilted></_>
    <_>
      <rects>
        <_>
          9 9 6 2 -1.</_>
        <_>
          11 9 2 2 3.</_></rects>
      <tilted>0</tilted></_>
    <_>
      <rects>
        <_>
          9 9 3 2 -1.</_>
        <_>
          9 10 3 1 2.</_></rects>
      <tilted>0</tilted></_>
    <_>
      <rects>
        <_>
          9 9 3 3 -1.</_>
        <_>
          9 10 3 1 3.</_></rects>
      <tilted>0</tilted></_>
    <_>
      <rects>
        <_>
          9 10 1 4 -1.</_>
        <_>
          9 12 1 2 2.</_></rects>
      <tilted>0</tilted></_>
    <_>
      <rects>
        <_>
          9 10 3 2 -1.</_>
        <_>
          9 11 3 1 2.</_></rects>
      <tilted>0</tilted></_>
    <_>
      <rects>
        <_>
          9 10 3 4 -1.</_>
        <_>
          9 12 3 2 2.</_></rects>
      <tilted>0</tilted></_>
    <_>
      <rects>
        <_>
          9 10 4 4 -1.</_>
        <_>
          9 12 4 2 2.</_></rects>
      <tilted>0</tilted></_>
    <_>
      <rects>
        <_>
          9 11 8 1 -1.</_>
        <_>
          13 11 4 1 2.</_></rects>
      <tilted>0</tilted></_>
    <_>
      <rects>
        <_>
          9 12 2 2 -1.</_>
        <_>
          9 12 1 1 2.</_>
        <_>
          10 13 1 1 2.</_></rects>
      <tilted>0</tilted></_>
    <_>
      <rects>
        <_>
          9 12 2 3 -1.</_>
        <_>
          9 13 2 1 3.</_></rects>
      <tilted>0</tilted></_>
    <_>
      <rects>
        <_>
          9 13 2 3 -1.</_>
        <_>
          9 14 2 1 3.</_></rects>
      <tilted>0</tilted></_>
    <_>
      <rects>
        <_>
          9 13 3 2 -1.</_>
        <_>
          9 14 3 1 2.</_></rects>
      <tilted>0</tilted></_>
    <_>
      <rects>
        <_>
          10 8 1 2 -1.</_>
        <_>
          10 9 1 1 2.</_></rects>
      <tilted>0</tilted></_>
    <_>
      <rects>
        <_>
          10 8 3 4 -1.</_>
        <_>
          11 8 1 4 3.</_></rects>
      <tilted>0</tilted></_>
    <_>
      <rects>
        <_>
          10 10 2 2 -1.</_>
        <_>
          10 11 2 1 2.</_></rects>
      <tilted>0</tilted></_>
    <_>
      <rects>
        <_>
          10 11 9 1 -1.</_>
        <_>
          13 11 3 1 3.</_></rects>
      <tilted>0</tilted></_>
    <_>
      <rects>
        <_>
          10 12 1 3 -1.</_>
        <_>
          10 13 1 1 3.</_></rects>
      <tilted>0</tilted></_>
    <_>
      <rects>
        <_>
          10 12 4 2 -1.</_>
        <_>
          10 12 2 1 2.</_>
        <_>
          12 13 2 1 2.</_></rects>
      <tilted>0</tilted></_>
    <_>
      <rects>
        <_>
          10 13 1 2 -1.</_>
        <_>
          10 14 1 1 2.</_></rects>
      <tilted>0</tilted></_>
    <_>
      <rects>
        <_>
          11 9 6 3 -1.</_>
        <_>
          13 9 2 3 3.</_></rects>
      <tilted>0</tilted></_>
    <_>
      <rects>
        <_>
          11 10 8 3 -1.</_>
        <_>
          15 10 4 3 2.</_></rects>
      <tilted>0</tilted></_>
    <_>
      <rects>
        <_>
          11 11 6 1 -1.</_>
        <_>
          13 11 2 1 3.</_></rects>
      <tilted>0</tilted></_>
    <_>
      <rects>
        <_>
          12 11 6 1 -1.</_>
        <_>
          14 11 2 1 3.</_></rects>
      <tilted>0</tilted></_>
    <_>
      <rects>
        <_>
          12 12 2 2 -1.</_>
        <_>
          12 13 2 1 2.</_></rects>
      <tilted>0</tilted></_>
    <_>
      <rects>
        <_>
          13 10 2 4 -1.</_>
        <_>
          14 10 1 4 2.</_></rects>
      <tilted>0</tilted></_>
    <_>
      <rects>
        <_>
          13 11 1 2 -1.</_>
        <_>
          13 12 1 1 2.</_></rects>
      <tilted>0</tilted></_>
    <_>
      <rects>
        <_>
          13 11 6 1 -1.</_>
        <_>
          16 11 3 1 2.</_></rects>
      <tilted>0</tilted></_>
    <_>
      <rects>
        <_>
          13 12 2 2 -1.</_>
        <_>
          14 12 1 2 2.</_></rects>
      <tilted>0</tilted></_>
    <_>
      <rects>
        <_>
          14 7 4 7 -1.</_>
        <_>
          16 7 2 7 2.</_></rects>
      <tilted>0</tilted></_></features></cascade>
</opencv_storage>
